{"layers":[{"neurons":[{"activation":{"type":"tanh"},"bias":-0.076118104159832,"weights":[0.341260462999344]},{"activation":{"type":"tanh"},"bias":0.707575082778931,"weights":[-0.900025248527527]},{"activation":{"type":"tanh"},"bias":-0.63207072019577,"weights":[0.99730509519577]},{"activation":{"type":"tanh"},"bias":-0.854170024394989,"weights":[-1.26407778263092]},{"activation":{"leaky_parameter":0.5,"type":"rectifier"},"bias":-0.685126900672913,"weights":[-0.00468969810754061]},{"activation":{"leaky_parameter":0.5,"type":"rectifier"},"bias":0.41717141866684,"weights":[0.0237798094749451]}]},{"neurons":[{"activation":{"type":"tanh"},"bias":0.440875828266144,"weights":[0.985603988170624,0.314152866601944,-0.498665809631348,-0.575004458427429,-1.06831347942352,-0.110723488032818]},{"activation":{"type":"tanh"},"bias":0.122950106859207,"weights":[-0.313296973705292,0.700906872749329,-0.426727771759033,-0.397936224937439,0.5492143034935,-0.6336989402771]},{"activation":{"type":"tanh"},"bias":0.75721001625061,"weights":[-0.177366197109222,-0.484693557024002,-0.117011934518814,0.901083827018738,0.838258862495422,0.134883061051369]},{"activation":{"type":"tanh"},"bias":0.1288972645998,"weights":[-0.929042816162109,-0.133707523345947,0.635304749011993,-0.247950866818428,-0.75857275724411,0.348530352115631]},{"activation":{"type":"tanh"},"bias":0.318149566650391,"weights":[0.712904810905457,0.00984654296189547,-0.437458366155624,0.338840007781982,0.808225989341736,0.300438284873962]},{"activation":{"type":"tanh"},"bias":0.33769679069519,"weights":[0.6768998503685,-0.433397263288498,0.565471291542053,0.933667004108429,-0.217310771346092,-0.740687549114227]},{"activation":{"type":"tanh"},"bias":-0.571149706840515,"weights":[1.01003932952881,0.20479191839695,-0.172485321760178,-0.893789231777191,-0.393331080675125,1.0881872177124]},{"activation":{"type":"tanh"},"bias":-0.233578056097031,"weights":[-0.643915951251984,-0.211139887571335,-0.52134758234024,-0.49869978427887,-1.08525145053864,-0.034932941198349]},{"activation":{"leaky_parameter":0.5,"type":"rectifier"},"bias":-0.642523407936096,"weights":[-0.714279770851135,-0.000676469295285642,0.781182706356049,0.0205804407596588,0.086938701570034,-0.568221867084503]},{"activation":{"leaky_parameter":0.5,"type":"rectifier"},"bias":-0.373428225517273,"weights":[0.785469710826874,-0.311053246259689,0.00224953237921,0.571421682834625,0.0351370945572853,-0.334849029779434]}]},{"neurons":[{"activation":{"type":"tanh"},"bias":-0.400635898113251,"weights":[1.03593146800995,0.149996072053909,-0.743837714195251,-0.163334637880325,-0.0505309328436852,-0.776684165000916,0.442010074853897,-0.778394103050232,-0.700543701648712,-0.0743905603885651]},{"activation":{"type":"tanh"},"bias":-0.126926392316818,"weights":[0.693043649196625,-0.736386179924011,-0.749183297157288,0.121668919920921,0.9323490858078,-0.195598021149635,0.86826491355896,-0.259368091821671,0.488803595304489,-0.134017124772072]},{"activation":{"type":"tanh"},"bias":-0.547634124755859,"weights":[-0.320190012454987,0.616982817649841,0.957432150840759,0.312265843153,0.660273790359497,-0.574014782905579,0.813565135002136,0.280233353376389,0.407058745622635,0.71320241689682]},{"activation":{"type":"tanh"},"bias":-0.245180487632751,"weights":[0.802910983562469,-0.798971056938171,-0.584050178527832,0.159316092729568,0.972773790359497,0.0840324759483337,0.360325366258621,-0.988838970661163,0.481241196393967,0.763198912143707]},{"activation":{"type":"tanh"},"bias":-0.244300752878189,"weights":[0.324984431266785,-0.260900616645813,0.796521663665771,-0.0178150348365307,0.521020829677582,-0.31793087720871,-0.301526784896851,-0.734626770019531,0.681287407875061,-0.686183333396912]},{"activation":{"type":"tanh"},"bias":0.351175487041473,"weights":[-0.974556565284729,-0.174774736166,0.417629033327103,0.533052146434784,0.880870580673218,-0.932953834533691,-0.203936234116554,0.25366398692131,-0.259380847215652,-0.598623096942902]},{"activation":{"type":"tanh"},"bias":0.0709376037120819,"weights":[-0.726294994354248,-0.62818855047226,-0.196874544024467,0.877237915992737,0.6711505651474,0.120452664792538,-0.457567393779755,-0.322659969329834,-0.424355626106262,0.32559934258461]},{"activation":{"type":"tanh"},"bias":-0.672103881835938,"weights":[0.0318080820143223,0.645996510982513,-0.233610570430756,0.259604126214981,-0.0755776092410088,-0.342005759477615,0.028631903231144,0.97382926940918,-0.917697191238403,0.0710107609629631]},{"activation":{"type":"tanh"},"bias":-0.193194076418877,"weights":[0.946283161640167,-0.378242880105972,-0.417277336120605,-0.263244211673737,0.704559087753296,-0.506915092468262,-0.490724444389343,0.6572425365448,-0.483700722455978,-0.387303829193115]},{"activation":{"type":"tanh"},"bias":0.344642609357834,"weights":[-0.539582371711731,-0.382694989442825,0.0855110660195351,0.915303111076355,-0.72535902261734,0.0654556080698967,-0.321240395307541,-0.118823669850826,0.065423995256424,0.943067491054535]},{"activation":{"type":"tanh"},"bias":-0.0734406933188438,"weights":[-0.63163435459137,0.0575386844575405,0.342579364776611,-0.958688616752625,0.44716802239418,0.736794650554657,0.116180434823036,-0.491095989942551,-0.591090977191925,-0.190948382019997]},{"activation":{"type":"tanh"},"bias":0.405977010726929,"weights":[-0.0457058846950531,-0.37271386384964,0.933913230895996,-0.576346576213837,-0.605406105518341,0.30964583158493,0.706508278846741,-0.973534107208252,0.65403825044632,-0.404532641172409]},{"activation":{"type":"tanh"},"bias":-0.326823830604553,"weights":[-0.0596954151988029,-0.857300937175751,-0.0497567839920521,-0.108708046376705,0.50249195098877,-0.984450399875641,0.403103768825531,-0.301128387451172,-0.438892662525177,-0.732122838497162]},{"activation":{"type":"tanh"},"bias":-0.656833589076996,"weights":[0.773070096969604,0.56610518693924,0.193364590406418,-0.102858267724514,-0.739727139472961,0.730345666408539,0.759711027145386,0.222584590315819,0.933725297451019,-1.03707945346832]},{"activation":{"type":"tanh"},"bias":0.772377967834473,"weights":[0.459151715040207,-0.0772163048386574,-0.749832510948181,-0.382111847400665,-0.0616362132132053,-0.169395312666893,0.514469146728516,0.155524581670761,-0.237078383564949,0.306621909141541]},{"activation":{"type":"tanh"},"bias":-0.387560218572617,"weights":[0.958235859870911,-0.856465339660645,-0.451196193695068,0.90239006280899,0.509364545345306,0.610810458660126,-0.711762487888336,-0.519453763961792,-0.739668071269989,-0.392194122076035]},{"activation":{"type":"tanh"},"bias":0.891649723052979,"weights":[-0.317936331033707,0.704935252666473,-0.0207646265625954,0.827748119831085,0.35008117556572,0.0652754008769989,-0.314766108989716,0.660944581031799,-0.57808381319046,0.625510811805725]},{"activation":{"type":"tanh"},"bias":0.260604679584503,"weights":[-0.146261796355247,-0.220280721783638,0.843801856040955,-0.832537293434143,-0.768486320972443,-0.109649896621704,0.941096544265747,-0.715850710868835,-0.246955037117004,0.276140630245209]},{"activation":{"type":"tanh"},"bias":-0.109043344855309,"weights":[-0.428220331668854,0.353179067373276,-0.92316335439682,-0.911858201026917,0.792720675468445,0.718729674816132,-0.0364280268549919,-0.159274905920029,-1.03016185760498,0.91945481300354]},{"activation":{"type":"tanh"},"bias":-0.614257037639618,"weights":[-0.280173987150192,-0.596071183681488,-0.706668257713318,0.134303838014603,-0.0953549966216087,-0.0784271955490112,0.580872058868408,-0.990736484527588,0.946497440338135,0.115228347480297]},{"activation":{"type":"tanh"},"bias":-0.980779409408569,"weights":[-0.632352948188782,0.567915618419647,0.436347305774689,0.173114284873009,0.282983124256134,0.625140905380249,0.00754267256706953,0.703618049621582,-0.6346834897995,0.836956739425659]},{"activation":{"type":"tanh"},"bias":-0.418359488248825,"weights":[0.97008341550827,-0.437261998653412,0.826580822467804,0.758224964141846,-0.10777659714222,-0.471794247627258,-0.133324414491653,0.878305554389954,-0.525399148464203,-0.730349779129028]},{"activation":{"type":"tanh"},"bias":-0.00493645761162043,"weights":[-0.126628905534744,0.0293288566172123,-0.60014945268631,0.00707016140222549,-1.0372177362442,0.942260801792145,-0.912550926208496,0.994938373565674,0.358061254024506,-0.958613395690918]},{"activation":{"type":"tanh"},"bias":-0.0893415585160255,"weights":[0.873912215232849,-0.275729566812515,-0.203285664319992,-0.605397641658783,0.6301189661026,0.668006241321564,0.22330741584301,0.145542308688164,0.780266165733337,-0.610296368598938]},{"activation":{"type":"tanh"},"bias":-0.568933665752411,"weights":[-0.680865585803986,-0.65035080909729,1.00708973407745,0.250575810670853,-0.511761844158173,-0.559605956077576,-0.536128044128418,0.366463273763657,-0.0643436536192894,0.293694525957108]},{"activation":{"type":"tanh"},"bias":-0.21302630007267,"weights":[-0.687228143215179,-0.92645925283432,0.754124045372009,-0.626869797706604,0.872286736965179,0.709622919559479,-0.653773367404938,-0.123009353876114,0.505543529987335,-0.873889029026031]},{"activation":{"type":"tanh"},"bias":-0.973018288612366,"weights":[-0.483882874250412,0.443630188703537,0.20974001288414,-0.570067346096039,0.98588615655899,0.401933252811432,0.491078108549118,-0.123810335993767,-0.0695545598864555,0.154125511646271]},{"activation":{"type":"tanh"},"bias":0.213454693555832,"weights":[-0.901809334754944,0.545490682125092,0.196030497550964,0.781286001205444,-0.279072135686874,-0.0885323211550713,-0.0984034463763237,0.827571332454681,-0.705275893211365,0.820377707481384]},{"activation":{"type":"tanh"},"bias":-0.429452836513519,"weights":[0.0550074242055416,-0.613299131393433,-0.687174499034882,0.107876665890217,0.696811020374298,-0.549830794334412,-0.646357178688049,0.596166431903839,0.892813265323639,-0.284231871366501]},{"activation":{"type":"tanh"},"bias":-0.114114120602608,"weights":[-0.355946093797684,-0.515008985996246,1.00438702106476,0.340864062309265,0.655006885528564,-0.14700947701931,0.366423577070236,-0.70364248752594,0.211759954690933,0.704281747341156]},{"activation":{"type":"tanh"},"bias":0.950206637382507,"weights":[-0.756139993667603,0.799298942089081,0.0158962849527597,0.743225812911987,0.741605639457703,-0.863123714923859,0.583281993865967,0.264042586088181,0.0102478545159101,0.0512135773897171]},{"activation":{"type":"tanh"},"bias":-1.01832115650177,"weights":[0.410197764635086,-0.829865515232086,0.00651533948257565,-0.335570186376572,-0.959761917591095,-0.906588494777679,-0.226715192198753,-0.591752409934998,0.959841728210449,-0.939050555229187]},{"activation":{"leaky_parameter":0.5,"type":"rectifier"},"bias":-0.783200681209564,"weights":[0.500270187854767,0.683363735675812,0.380660265684128,-0.464779913425446,0.560516178607941,-0.698088109493256,-0.047907430678606,-0.506250441074371,-0.552990734577179,-0.576419949531555]},{"activation":{"leaky_parameter":0.5,"type":"rectifier"},"bias":-0.48086553812027,"weights":[0.190614879131317,-0.234464898705482,0.019822621718049,0.622357308864594,-0.204535141587257,-0.661948144435883,0.124701291322708,-0.819517493247986,0.619872570037842,-0.41416272521019]}]},{"neurons":[{"activation":{"type":"linear"},"bias":-0.131351873278618,"weights":[-0.608631014823914,-0.159570217132568,0.348335951566696,0.886613368988037,-0.173455610871315,0.907969295978546,-0.251539796590805,-0.511894166469574,0.0492566637694836,0.234197840094566,0.5407355427742,0.926024913787842,0.619916439056396,0.754360318183899,0.739042162895203,-0.778236985206604,-0.172099903225899,-0.861113965511322,-0.881604015827179,0.267805546522141,0.0226287674158812,-0.586816668510437,0.602773427963257,0.0824741125106812,1.03894853591919,-0.852122902870178,-7.33706983737648e-05,0.251546770334244,0.783158957958221,-0.805788815021515,0.854437470436096,-0.89240950345993,-0.74951583147049,-0.127655789256096]}]}]}