{"layers":[{"neurons":[{"activation":{"type":"tanh"},"bias":-0.872727394104004,"weights":[0.612828552722931]},{"activation":{"type":"tanh"},"bias":-4.37144184112549,"weights":[-1.5258104801178]},{"activation":{"type":"tanh"},"bias":-2.95378541946411,"weights":[-1.19605672359467]},{"activation":{"type":"tanh"},"bias":-0.040856521576643,"weights":[-1.10163557529449]},{"activation":{"type":"tanh"},"bias":-4.42945146560669,"weights":[1.315220952034]},{"activation":{"type":"tanh"},"bias":-1.22763526439667,"weights":[0.625250637531281]}]},{"neurons":[{"activation":{"type":"tanh"},"bias":0.762148857116699,"weights":[-0.806789755821228,-0.113052524626255,0.011024140752852,0.11382994055748,0.205350637435913,-0.0980957224965096]},{"activation":{"type":"tanh"},"bias":0.682590484619141,"weights":[-0.0867094621062279,1.19862830638885,1.19092929363251,-0.886056184768677,-1.08145892620087,-0.114496596157551]},{"activation":{"type":"tanh"},"bias":1.54159641265869,"weights":[0.943446516990662,0.656683027744293,-0.0620624162256718,2.68083119392395,0.404459536075592,1.8159966468811]},{"activation":{"type":"tanh"},"bias":1.12224459648132,"weights":[0.398832768201828,1.10004210472107,-0.236935392022133,-0.120969407260418,-1.0750687122345,1.17723190784454]},{"activation":{"type":"tanh"},"bias":-0.118634216487408,"weights":[0.799310564994812,-0.549441158771515,0.417712718248367,0.848667800426483,0.161457806825638,-1.03628301620483]},{"activation":{"type":"tanh"},"bias":1.45210933685303,"weights":[-0.481249004602432,-1.83392214775085,-1.27346479892731,-0.0964194089174271,0.32508972287178,-0.880499184131622]},{"activation":{"type":"tanh"},"bias":0.317644983530045,"weights":[0.836252927780151,0.118539564311504,0.722027659416199,0.275304645299911,0.43925741314888,0.333922654390335]},{"activation":{"type":"tanh"},"bias":-0.169873878359795,"weights":[-0.0706171691417694,-0.151958450675011,0.498265236616135,1.21785414218903,-0.789019465446472,0.748695552349091]}]},{"neurons":[{"activation":{"type":"tanh"},"bias":-0.467800557613373,"weights":[0.186143398284912,-0.676012396812439,0.532496213912964,-0.355155497789383,0.426496088504791,1.29421317577362,0.263545662164688,0.26585653424263]},{"activation":{"type":"tanh"},"bias":0.490669012069702,"weights":[1.1746860742569,-0.17491403222084,-0.69231903553009,-0.526422262191772,-0.537443339824677,-0.769268095493317,0.419526755809784,-0.192271828651428]},{"activation":{"type":"tanh"},"bias":-0.303285330533981,"weights":[0.300731420516968,-0.00814240798354149,-0.489962011575699,0.748551547527313,0.679818689823151,-0.286908835172653,-0.112230479717255,-0.63645875453949]},{"activation":{"type":"tanh"},"bias":-0.628798305988312,"weights":[0.605009496212006,-0.160292506217957,0.169034942984581,0.243025422096252,0.0256679020822048,0.514612197875977,-0.102797657251358,0.174896195530891]},{"activation":{"type":"tanh"},"bias":0.0900736376643181,"weights":[0.480282306671143,-1.00044465065002,0.184883877635002,-0.386113375425339,0.768644213676453,-0.442432016134262,0.0543880052864552,-0.302450865507126]},{"activation":{"type":"tanh"},"bias":0.226423144340515,"weights":[0.554821312427521,-0.316059023141861,0.455807715654373,-1.06062829494476,0.217481002211571,-0.431533604860306,0.306317955255508,-0.536107182502747]},{"activation":{"type":"tanh"},"bias":0.211591318249702,"weights":[0.0249074213206768,0.798449516296387,-0.828101813793182,0.279559016227722,0.88292121887207,0.550393164157867,0.699343502521515,-0.19877652823925]},{"activation":{"type":"tanh"},"bias":0.462512165307999,"weights":[0.580097734928131,-0.887191295623779,-0.524767935276031,-0.140265420079231,0.637431561946869,-0.824494361877441,0.412611782550812,-0.394778221845627]}]},{"neurons":[{"activation":{"type":"linear"},"bias":-0.0560065805912018,"weights":[-0.629294991493225,0.12232755869627,0.176931604743004,0.0230199731886387,-0.117663331329823,-0.171375811100006,0.276790827512741,-0.0365319587290287]}]}]}