{"layers":[{"neurons":[{"activation":{"type":"tanh"},"bias":-1.37092006206512,"weights":[-0.796645522117615]},{"activation":{"type":"tanh"},"bias":-0.256124943494797,"weights":[1.21452593803406]},{"activation":{"type":"tanh"},"bias":0.148985952138901,"weights":[0.631394982337952]},{"activation":{"type":"tanh"},"bias":0.398982733488083,"weights":[-1.31538677215576]},{"activation":{"type":"tanh"},"bias":-1.45385563373566,"weights":[0.813002228736877]},{"activation":{"type":"tanh"},"bias":0.636502385139465,"weights":[0.731804549694061]}]},{"neurons":[{"activation":{"type":"tanh"},"bias":-0.275551795959473,"weights":[0.223737224936485,0.548989772796631,0.2229123711586,0.980671942234039,-0.103777691721916,0.41239994764328]},{"activation":{"type":"tanh"},"bias":-0.390370398759842,"weights":[1.29636704921722,0.138540834188461,0.266878426074982,0.257070004940033,0.10269920527935,0.0136061683297157]},{"activation":{"type":"tanh"},"bias":-0.755875825881958,"weights":[-0.925099492073059,-0.668892383575439,0.081306129693985,-0.952411472797394,-0.906478226184845,-0.781940937042236]},{"activation":{"type":"tanh"},"bias":0.450240224599838,"weights":[-0.931740880012512,0.244308963418007,0.586964428424835,-0.824742913246155,0.0679740756750107,0.37031364440918]},{"activation":{"type":"tanh"},"bias":-0.548269331455231,"weights":[0.78893768787384,0.71085000038147,-0.913453876972198,0.479381382465363,-0.00962789356708527,-0.657720148563385]},{"activation":{"type":"tanh"},"bias":-0.556876301765442,"weights":[1.43487775325775,0.784704327583313,-0.35800564289093,-0.630819737911224,0.251290380954742,-0.743516623973846]},{"activation":{"type":"tanh"},"bias":0.50686115026474,"weights":[0.528169512748718,-0.764345824718475,-0.0843244269490242,-0.494479864835739,0.62823873758316,-0.235823675990105]},{"activation":{"type":"tanh"},"bias":0.243916437029839,"weights":[0.387425869703293,-0.751089215278625,0.757504463195801,-0.878785669803619,0.51797890663147,0.190521970391273]},{"activation":{"type":"tanh"},"bias":0.623951494693756,"weights":[-0.883089065551758,0.0604865178465843,0.466037631034851,-0.429323077201843,-0.598627388477325,0.474375128746033]},{"activation":{"type":"tanh"},"bias":0.772851347923279,"weights":[-0.374768078327179,-0.213425502181053,-0.55668169260025,0.457303166389465,-0.417418122291565,0.655463993549347]},{"activation":{"type":"tanh"},"bias":0.71827757358551,"weights":[-0.591093122959137,-0.902343094348907,-0.738446652889252,0.812703728675842,1.20980536937714,0.264844983816147]},{"activation":{"type":"tanh"},"bias":0.981683671474457,"weights":[0.640636086463928,-0.501124858856201,0.420062869787216,1.11040198802948,1.02197766304016,0.489844530820847]}]},{"neurons":[{"activation":{"type":"tanh"},"bias":-0.572163939476013,"weights":[-0.49583026766777,-0.921570956707001,0.610719621181488,-0.19336162507534,0.880039572715759,0.524559438228607,-0.558184325695038,-0.17938058078289,-0.241341382265091,-0.105608731508255,-0.318871766328812,0.0647203996777534]},{"activation":{"type":"tanh"},"bias":-0.434305816888809,"weights":[-0.78256744146347,0.320763140916824,-0.608755707740784,0.157916739583015,0.259145051240921,0.596132397651672,-0.615860164165497,-0.213031515479088,0.366373628377914,-0.595384061336517,0.313143193721771,0.216945052146912]},{"activation":{"type":"tanh"},"bias":-0.561573624610901,"weights":[-0.462431013584137,-0.901970148086548,-0.801958441734314,-0.465381115674973,-0.981244444847107,-1.24343645572662,0.21879605948925,-0.650300204753876,-0.526993274688721,-0.120156556367874,0.659330070018768,-0.373848408460617]},{"activation":{"type":"tanh"},"bias":-0.296618193387985,"weights":[-0.114854149520397,-0.917408287525177,0.529207348823547,0.702269077301025,-0.799189269542694,-0.194455981254578,0.765518069267273,-0.922744810581207,-0.529268085956573,-0.302100509405136,-0.739831328392029,-0.68486088514328]},{"activation":{"type":"tanh"},"bias":-0.564501762390137,"weights":[-0.159048050642014,-0.735667645931244,0.609149277210236,-0.126670762896538,-0.0957094952464104,-0.670279562473297,0.316225737333298,0.560320556163788,0.389914125204086,0.470036178827286,-0.430330127477646,0.120304234325886]},{"activation":{"type":"tanh"},"bias":0.971682250499725,"weights":[0.214878335595131,0.287870734930038,-0.574416220188141,0.991240322589874,0.0347809754312038,0.408313721418381,0.263901650905609,0.426558464765549,0.821566879749298,-0.218624293804169,0.133340299129486,-0.550868272781372]},{"activation":{"type":"tanh"},"bias":0.595072865486145,"weights":[-0.457790434360504,-0.748749852180481,0.689640760421753,0.0971077755093575,-0.464020907878876,0.895287752151489,-0.905540466308594,0.143733367323875,0.801137924194336,0.138297989964485,-0.733329474925995,-0.858331263065338]},{"activation":{"type":"tanh"},"bias":0.0246204938739538,"weights":[-0.245682373642921,-0.7759969830513,0.84344470500946,-0.154246121644974,-0.753236651420593,0.490356713533401,0.369845509529114,0.857896566390991,0.209111794829369,0.431636452674866,-0.247957199811935,0.189665243029594]},{"activation":{"type":"tanh"},"bias":0.146817162632942,"weights":[0.469327509403229,-0.915750622749329,-0.45806673169136,0.136207327246666,0.399238020181656,0.318912744522095,-0.568581342697144,0.64494913816452,-0.608762681484222,0.393153011798859,0.768023192882538,-0.164387285709381]},{"activation":{"type":"tanh"},"bias":0.675396382808685,"weights":[-0.881337463855743,0.785747826099396,0.694497168064117,-0.175908505916595,-0.244332671165466,-0.943934619426727,0.926225423812866,-0.275447696447372,-0.752547383308411,0.317993402481079,-0.766070961952209,-0.404253780841827]},{"activation":{"type":"tanh"},"bias":0.992427468299866,"weights":[0.382520765066147,-0.895934522151947,-0.911442458629608,0.399745911359787,-0.694991648197174,0.280964702367783,0.872322499752045,-0.797993183135986,-0.684413254261017,0.813101351261139,-0.656066536903381,0.0508409850299358]},{"activation":{"type":"tanh"},"bias":-0.0943230986595154,"weights":[-0.743732392787933,-0.928916215896606,-0.46404767036438,-0.760742902755737,-0.891495943069458,-0.620264053344727,-0.390034824609756,0.781025230884552,-0.216575786471367,0.75562059879303,0.562100231647491,0.814890027046204]},{"activation":{"type":"tanh"},"bias":-0.100335650146008,"weights":[-0.287049919366837,0.801747739315033,0.498577266931534,-0.802913665771484,0.251834541559219,0.674134969711304,-0.577678561210632,0.0336824394762516,-0.265262871980667,-0.0143302334472537,0.345864802598953,0.200721099972725]},{"activation":{"type":"tanh"},"bias":-0.945556581020355,"weights":[0.0797430872917175,0.163261696696281,0.512159764766693,0.190725520253181,-0.562580466270447,-0.155742689967155,-0.904174983501434,0.796283841133118,-0.947099268436432,0.546244442462921,0.459017962217331,0.710929691791534]},{"activation":{"type":"tanh"},"bias":-0.298043251037598,"weights":[0.951914668083191,-0.0745428204536438,0.354038953781128,-0.306852340698242,-0.158809721469879,0.279011934995651,0.692946672439575,-0.755152702331543,-0.821119487285614,-0.770010948181152,0.656433761119843,0.708143651485443]},{"activation":{"type":"tanh"},"bias":-0.183550432324409,"weights":[-0.224926352500916,0.351270079612732,-0.920086026191711,-0.164882868528366,-0.454181998968124,-0.653222799301147,0.800131857395172,-0.835297286510468,-0.822212100028992,-0.607026696205139,0.784435391426086,1.09778559207916]},{"activation":{"type":"tanh"},"bias":0.9501131772995,"weights":[-0.49537405371666,0.533893942832947,-0.19319012761116,-0.62101012468338,0.228757172822952,0.357677221298218,0.45494019985199,0.258100807666779,0.108594253659248,-0.662541806697845,-0.852337062358856,0.312514334917068]},{"activation":{"type":"tanh"},"bias":-0.780405640602112,"weights":[0.810934960842133,0.16518934071064,-0.150631576776505,0.315974503755569,-0.243354707956314,0.097247026860714,-0.706339538097382,0.21798349916935,-0.111929729580879,0.890331566333771,-0.583267509937286,0.300689071416855]},{"activation":{"type":"tanh"},"bias":-0.466875612735748,"weights":[-0.153926715254784,-0.940344512462616,-0.944836497306824,-1.01786327362061,-0.964803397655487,0.670564949512482,0.00254826969467103,-0.236110419034958,-0.228160664439201,-0.738695204257965,0.0176304187625647,-0.568380951881409]},{"activation":{"type":"tanh"},"bias":0.246231615543365,"weights":[0.449934601783752,-0.62415486574173,-0.286467581987381,0.454659819602966,-0.672538459300995,0.218654170632362,-0.707184851169586,-0.599496126174927,-0.490494817495346,-0.354823380708694,-0.906385242938995,-0.00970735680311918]},{"activation":{"type":"tanh"},"bias":-0.107399009168148,"weights":[-0.686851322650909,0.432681620121002,-0.291965067386627,-0.758222341537476,0.104699485003948,-0.192856803536415,-0.72817587852478,-0.34760519862175,0.647044360637665,-0.780263423919678,-0.671454966068268,-0.193567365407944]},{"activation":{"type":"tanh"},"bias":-0.140882164239883,"weights":[0.872482001781464,-0.509661078453064,-0.533586263656616,0.218768507242203,-0.498578429222107,-0.547267138957977,-0.765891909599304,1.02061712741852,-0.606682658195496,-0.959015011787415,-0.383744478225708,0.856388747692108]},{"activation":{"type":"tanh"},"bias":-0.991638958454132,"weights":[-0.361137300729752,0.79681521654129,-0.481926172971725,-0.95568859577179,-0.284521520137787,0.351722061634064,-0.384399354457855,0.812705338001251,0.152802318334579,0.701537728309631,0.113774873316288,0.122808963060379]},{"activation":{"type":"tanh"},"bias":-0.277258634567261,"weights":[-0.671469032764435,0.457541912794113,-0.180134758353233,0.285982757806778,-0.222670659422874,-0.550316154956818,-0.0345434583723545,-0.209984958171844,0.590491414070129,-0.0642459094524384,0.378498882055283,0.567340612411499]},{"activation":{"type":"tanh"},"bias":0.350337624549866,"weights":[0.474719405174255,0.375862687826157,-0.292537242174149,0.904572308063507,-0.823148727416992,0.942514300346375,-0.282343357801437,0.941117584705353,-0.317159563302994,-0.619257867336273,-0.966278612613678,-0.434768557548523]},{"activation":{"type":"tanh"},"bias":0.0149926263839006,"weights":[-0.956158578395844,-0.702697932720184,0.945720493793488,0.566305041313171,0.727217197418213,-0.503530621528625,0.858650505542755,-0.719235897064209,0.448760896921158,0.578368604183197,0.937048137187958,0.149106487631798]},{"activation":{"type":"tanh"},"bias":0.214984089136124,"weights":[-0.667349457740784,-0.799108684062958,-0.137504011392593,0.161192387342453,0.298382431268692,0.451008141040802,-0.535047709941864,0.117534838616848,-0.801423490047455,-0.368928015232086,-0.510334968566895,0.457157641649246]},{"activation":{"type":"tanh"},"bias":0.328057557344437,"weights":[-0.0367612801492214,0.521119177341461,-0.530486464500427,0.724723875522614,0.0109184179455042,-0.077719509601593,0.738604962825775,0.174464359879494,0.561729669570923,-0.867209315299988,-0.949069976806641,0.125142514705658]},{"activation":{"type":"tanh"},"bias":-0.532026708126068,"weights":[0.632536172866821,0.724085032939911,0.87186199426651,0.857550024986267,-0.528109431266785,-0.372439712285995,0.736642420291901,0.28170445561409,-0.0976888909935951,0.928656339645386,0.893704414367676,-0.594002604484558]},{"activation":{"type":"tanh"},"bias":0.798911988735199,"weights":[-0.291611403226852,-0.774384796619415,0.311982661485672,-0.452609598636627,-0.959775030612946,-0.923359334468842,-0.811157703399658,0.225841894745827,-0.501408040523529,0.859935104846954,-0.677867233753204,0.39409127831459]},{"activation":{"type":"tanh"},"bias":-0.923822522163391,"weights":[-0.698211014270782,-0.355619013309479,0.43466991186142,0.98809427022934,-0.441951245069504,0.124764941632748,0.328626900911331,-0.301252037286758,0.510003507137299,0.615422010421753,-0.96285480260849,0.0818921476602554]},{"activation":{"type":"tanh"},"bias":0.911438465118408,"weights":[0.164885759353638,0.0414960719645023,0.815600514411926,-0.533339083194733,-0.610491454601288,-0.483044683933258,0.666113555431366,-0.864914238452911,-0.556105613708496,0.489541977643967,-0.718562543392181,0.653466582298279]},{"activation":{"type":"tanh"},"bias":-0.749340772628784,"weights":[0.970294117927551,0.287892669439316,-0.154768958687782,-0.856191456317902,0.268655478954315,-0.271961033344269,0.704045414924622,-0.599541425704956,0.737156450748444,0.197427004575729,0.458563059568405,0.0918112099170685]},{"activation":{"type":"tanh"},"bias":0.19628831744194,"weights":[0.942080080509186,1.001185297966,0.0237808804959059,0.535183310508728,0.485867917537689,0.151305228471756,-0.367378920316696,0.897171974182129,0.225978195667267,-0.604557394981384,0.714080512523651,-0.28742316365242]},{"activation":{"type":"tanh"},"bias":0.798944771289825,"weights":[0.0223045758903027,-0.367728918790817,0.758158087730408,0.440173804759979,0.767356514930725,0.614275932312012,0.64086240530014,-0.885892748832703,-0.621489584445953,-0.329679936170578,0.841594696044922,0.129280120134354]},{"activation":{"type":"tanh"},"bias":0.448210477828979,"weights":[-0.115040242671967,0.136404395103455,-0.498758554458618,0.907769918441772,-0.0965035930275917,-0.597411215305328,-0.0167188942432404,0.186438098549843,-0.265244454145432,0.0164756402373314,0.589072108268738,-0.408783048391342]}]},{"neurons":[{"activation":{"type":"linear"},"bias":-0.107429422438145,"weights":[-0.513945758342743,-0.253417015075684,-0.685915231704712,-0.0959491431713104,0.21941140294075,0.0418624840676785,0.420497328042984,-0.661744117736816,0.692517220973969,0.252734780311584,0.761914432048798,0.0845382139086723,-0.327083915472031,0.00788758043199778,-0.608020782470703,-0.771426975727081,0.253275901079178,-0.48054563999176,-0.739796280860901,0.516297578811646,0.650086939334869,-0.728456854820251,0.50093287229538,0.620087087154388,0.551392614841461,-0.566252171993256,-0.165670439600945,0.279498994350433,0.159459754824638,-0.609885454177856,-0.0305155515670776,-0.0526518374681473,-0.13556008040905,0.187538161873817,1.0618143081665,-0.531527161598206]}]}]}